109 15
0 0.022063488 0.025587084 -0.013652528 0.02101697 0.017704172 0.045206305 0.018646501 0.053119533 -0.03611253 -0.04892297 0.0044454797 0.02766848 0.016010214 -0.01875856 -0.024928356
4 -0.0031468768 -0.024772985 0.017017178 0.017163325 0.041542012 0.025841828 0.028171362 -0.0014838155 -0.016450688 -0.00700348 0.030880904 0.00181585 -0.010402417 0.010386161 -0.018031009
1 0.009901987 0.01961183 0.021591721 -0.0072353077 0.046000883 0.025780797 -0.0005229005 0.019587236 -0.02141728 0.0045832945 0.033917133 0.032431643 0.021842595 0.0055143456 0.01754085
17 0.021369586 0.01428029 0.002131345 -0.027415903 0.034621984 0.016052881 -0.021279002 0.017664649 -0.038398948 -0.013206801 -0.010395137 -0.0030094846 -0.0145934485 -0.013127008 -0.002402523
14 -0.0066735568 -0.019177368 0.008176901 0.024075396 0.01676624 0.05237962 -0.022449572 0.02499974 -0.035875134 0.018244637 -0.009349091 0.004813283 -0.0013210888 -0.012952347 -0.016522987
70 -0.0065665036 -0.005201469 0.018069033 0.02053874 0.039726395 0.032852754 0.002995147 0.0036778073 -0.009185575 -0.03560282 -0.022524245 -0.001952183 -0.0013934029 -0.011341278 0.011889858
21 -0.018678647 -0.020088732 0.007587058 0.03051741 -0.013950706 0.028058913 0.0074075833 0.04972895 -0.05625596 0.0037014731 0.021543784 -0.0005959477 0.02954501 -0.027739143 -0.01138483
64 -0.017728189 0.00419731 0.022353739 -0.015710713 -0.015986003 0.0005330102 0.028880116 0.042236175 -0.033794418 -0.0067314436 -0.018460024 -0.005907339 0.009524888 -0.014230178 -0.004684706
11 0.023703672 0.023756305 0.028236507 -0.0010578667 0.014415687 -0.01671005 -0.015681004 0.051055156 -0.035818905 -0.020758476 -0.0017058454 -0.012450625 0.028814794 -0.025716413 0.0015671209
8 -0.031682745 -0.030715946 -0.002913924 -0.008932386 -0.009551438 -0.013230007 0.013026176 -0.014488293 -0.037794646 -0.032282878 0.027544128 0.032347325 0.025704656 -0.027482983 0.022535235
67 0.019414306 0.0050252546 -0.022676473 -0.008775038 0.02925669 0.024382673 -0.013214582 0.012792841 -0.042857148 -0.01858212 -0.02225771 -0.024935436 0.018057967 -0.03797746 -0.031280745
91 0.011678815 -0.034835137 0.0016089479 -0.03086893 -0.013390965 -0.012116304 0.027870439 0.0051174858 -0.024303311 0.017142823 0.014920442 0.025978845 -0.030151779 -0.034958195 -0.016639324
63 0.029468939 0.026148308 0.011654064 -0.011234482 0.00922422 0.012948105 0.019539455 0.0024725527 -0.045755718 -0.0010082844 0.0023772966 -0.0062108207 0.00052086293 0.008282742 0.013657059
85 -0.019796235 0.023470227 0.038656164 -0.030697415 0.03940164 0.039203253 0.007985355 0.048688572 -0.01965246 -0.002283773 -0.008081797 -0.01044112 -0.02293899 -0.02529861 -0.0031411385
92 -0.0060894145 -0.010951546 -0.017263973 -0.00076892925 0.01990266 0.026470816 0.024185825 0.01883119 -0.0017534622 -0.032691862 0.014870469 -0.0073025594 0.025515364 -0.02795745 -0.018552147
33 -0.016021082 0.0076379506 -0.024161376 -0.009667447 0.0048814295 0.027442787 0.03680362 -0.013564709 -0.016603958 -0.026174083 0.014027366 -0.014657841 0.009879385 -0.020240178 0.011763493
9 0.01303478 0.01743102 -0.025764162 0.004399645 -0.0038246172 0.008305332 -0.0032563626 0.0031042246 0.0037114432 0.014136222 -0.022769505 -0.022529943 -0.024838177 0.009137873 0.009333866
31 0.01300869 0.011018999 0.035349026 0.0048275026 0.03933929 0.0306705 0.035553057 0.0068129944 -0.030347072 0.011951046 0.0054617794 0.033418376 0.021976946 0.009949875 0.016842756
96 0.010360698 -0.03384164 0.012112798 0.004396868 0.012742053 -0.00041908998 0.02855885 -0.0032872765 -0.020284325 -0.039850567 0.0053372113 -0.032314498 0.039893836 0.0031031326 -0.0039941147
20 -0.014122035 -0.008368664 0.0026297874 -0.017916271 0.018276619 -0.0061794207 -0.011725114 -0.020303505 0.013848158 0.0016218668 -0.0058865724 -0.029865136 -0.014787113 0.02758097 -0.027669756
16 -0.0020273621 -0.013705962 -0.020591654 -0.024615258 0.020214736 -0.010730723 -0.008898747 0.030199615 0.014915298 -0.018458359 -0.003699808 0.007445476 -0.015964719 -0.0243721 -0.021199174
29 -0.00872526 -0.031703692 0.03304769 0.0151879145 -0.018563922 0.029077321 -0.013005617 0.019011458 0.019343946 -0.012230258 0.0044803466 0.027370093 0.027842684 0.001208964 -0.021614166
97 -0.025682962 0.016101856 0.02769867 -0.009467316 0.052307237 0.03001621 0.041429974 0.013910075 -0.04928577 0.0007885222 -0.024656937 0.031578034 0.02237172 -0.017244961 0.022689177
94 0.0028362398 0.0039141467 0.029322978 0.023805263 -0.008005364 -0.016181035 -0.006576344 0.013869309 0.003352384 -0.029996114 -0.02292045 -0.005031393 -0.025225917 0.0017225919 -0.0076857395
73 0.0091207335 -0.029425481 0.011190193 -0.0054287934 0.039229866 0.031981163 0.03697195 0.038881697 0.0023895404 -0.033719733 -0.02578307 -0.017994013 -0.01924589 -0.0003224672 0.029335093
74 0.004879016 0.019630047 -0.010820834 -0.0052689314 0.0020429757 0.04190065 -0.018312141 -0.0016854777 -0.020954572 0.002673856 0.022246284 0.012104472 0.031804744 0.011877754 0.0066185063
22 -0.03282493 -0.023027487 0.010345645 -0.010999313 0.009070355 0.016233914 -0.011321475 0.029660482 -0.039536454 -0.0097749885 0.029039113 0.02831278 -0.00013084777 -0.008659509 0.00062827923
6 -0.021233236 -0.021375127 -0.01310767 -0.024605822 -0.0047376137 0.031191505 -0.0074110916 0.0006504467 -0.03321391 0.013879027 0.028390579 0.007440516 0.026691476 -0.0013015787 0.024465315
30 0.017594589 -0.001989566 0.010116396 -0.0056469077 0.046007548 0.02158635 -0.019764319 0.023312101 -0.029715344 0.010091111 -0.026350724 -0.022871118 -0.02464632 -0.027224869 0.004831705
45 -0.0061098863 0.010735586 -0.014448723 0.022561844 0.014764966 0.011077716 0.024694318 0.024089755 -0.031177584 -0.0155378245 -0.018823422 0.0069643185 0.0047337934 -0.024205897 -0.028698375
108 -0.007154013 0.010782462 -0.0028335103 0.014240007 -0.024489287 -0.017373173 0.029870845 0.0051399996 -0.01677795 0.027421983 -0.0060139378 0.0108286245 -0.015826743 -0.027806384 0.011920498
89 -0.0264962 0.017525407 0.007700859 0.009438395 0.015791409 0.022086311 -0.026047932 0.031178823 -0.020195747 -0.020638784 -0.022822019 -0.0140516665 0.01656701 0.011513675 0.01761476
3 -0.012990654 0.005439379 -0.015289974 -0.015213874 0.0029617562 0.030597717 0.027334321 0.0068362225 -0.023874842 0.0049850238 0.025070658 0.023471177 0.020205127 -0.015164907 0.030452173
107 0.008807614 -0.027303474 -0.012151676 0.021564422 0.024167253 -0.011756852 -0.029032568 -0.024270322 -0.01903094 -0.0045876647 0.0045046266 0.003905009 -0.015031719 0.008298287 0.032055866
10 -0.012224662 0.028512346 -0.009770822 0.033375137 0.024120018 0.0063616005 0.014789353 0.01194994 -0.0016162845 -0.027072854 0.01818409 -0.0021905627 -0.0025090142 -0.006762007 -0.013551571
15 -0.02353611 -0.015517261 0.00033324448 0.02694994 0.027712487 0.006268603 -0.009254531 -0.011987729 0.00095084164 -0.03680174 -0.017565008 -0.024603227 -0.025832936 -0.02130136 0.0069083697
109 -0.006647356 0.008552254 -0.025859445 -0.02049809 0.0184436 -0.00107483 -0.019817652 0.003554212 0.016677316 0.0038207255 -0.00028961938 -0.006832901 0.02792669 0.023302559 0.018731235
23 -0.030765658 -0.0059245704 0.03117652 0.02654537 -0.022142045 0.02653655 -0.0005360514 0.034950383 -0.041173562 0.011683654 0.0016737661 0.020064598 -0.025583662 0.016473912 0.02170508
50 0.0086808605 0.032655407 -0.01808594 -0.029435953 0.025884382 0.013099002 0.03211865 0.020665549 -0.015224957 -0.03269434 0.022490723 -0.02834702 0.034157634 0.023140041 -0.029211786
26 0.00728039 -0.030032545 0.031296063 0.0010803888 -0.003023317 -0.012319962 -0.012595649 -0.005492034 -0.026548615 -0.008220814 -0.0046544215 -0.019265814 0.020756096 0.01208331 0.02231311
66 0.011649321 -0.026833318 0.005125358 0.013111064 -0.027192425 -0.005847803 0.0015454991 0.023361646 0.012772914 0.020364918 0.03362388 -0.0059920405 0.032869276 -0.019650698 0.024601538
24 0.027752422 -0.009026782 -0.0065429416 -0.0053429343 -0.0153212 0.04143047 0.027448084 0.022500716 -0.010685423 -0.033726323 -0.026728766 -0.02681255 0.009216357 0.013934917 0.014155585
80 -0.015349109 -0.023306325 0.00993553 -0.0038606604 0.0392427 0.03105729 -0.012858721 -0.009006413 -0.012300931 0.018393902 -0.0067884177 -0.019558543 0.027916167 0.00018609868 0.021081902
43 -0.011343028 -0.026385978 0.034778617 0.030220093 0.029793788 0.013852913 0.035727065 -0.015022313 -0.046101954 -0.010754367 0.0042371764 -0.0058354177 0.00962145 0.0060523683 -0.022482276
47 0.0017492857 0.021901082 0.013881649 0.00024026036 -0.017163066 0.043421168 0.031073857 0.0375155 0.014591021 -0.024301892 0.014124913 0.0053754775 -0.020158488 -0.032975312 1.0016876e-05
100 -0.016170986 -0.024864454 0.024447965 0.010771481 0.012106665 0.032294005 -0.0030233231 0.032948483 -0.026769131 -0.01213887 0.018596947 -0.019071372 -0.016904788 -0.004303389 0.030275097
69 -0.03416738 -0.0037143892 0.026401224 0.02107675 0.03007968 0.045098137 0.03378029 0.02535858 0.01656235 0.010156164 -0.024372712 0.022477057 -0.010684124 0.01076886 -0.012960071
93 -0.020667868 0.016426394 0.032889195 0.0054671015 -0.015805436 0.027439484 -0.019437775 0.00026644254 -0.017517174 0.016448356 -0.022936372 0.0027309628 0.026553692 -0.020931095 -0.032139175
57 0.025139082 0.015319494 0.009918149 0.009773766 -0.012897415 0.023715513 -0.027126692 -0.02569751 -0.036783237 -0.010040821 -0.02700424 -0.029561562 0.0045598247 0.009007478 0.02466187
51 0.016844636 0.005435291 0.021837104 -0.030271497 0.0064951787 -0.014081045 0.017430706 0.0014218374 -0.017715944 -0.035641763 0.021995597 -0.009218597 0.024383064 -0.02583135 0.007571304
90 -0.027513128 0.0063885506 0.013414773 -0.019525366 0.015771123 -0.0065939166 0.006975968 0.00047385172 -0.046283524 -0.034107067 0.01486719 0.0038078234 -0.03103341 0.01767136 -0.010369036
68 -0.02320594 -0.02903602 0.017923327 -0.014254084 0.012623699 -0.004208249 -0.0057447366 0.0073421225 -0.04465431 -0.022853862 0.022621756 -0.02630284 0.019394478 -0.004359756 0.005509392
34 -0.028449655 -0.022591261 -0.021661771 0.033047684 0.0013963724 0.016321879 -0.013425491 -0.0057726474 0.008993724 -0.017071351 0.013297801 0.010213166 0.024722965 0.028936887 0.004651224
13 -0.032824766 -0.003956504 0.03270727 0.014445107 0.01874058 -0.018182144 0.025231747 0.002697886 -0.025547303 -0.032508988 -0.002669339 0.0321924 0.008942088 0.0060005845 0.02974005
40 -0.0010047479 0.025184765 0.019576918 0.03370734 0.045601312 0.036587395 0.01806656 0.018105032 -0.014868401 -0.039007805 0.008847498 0.022010429 -0.019192055 -0.019235017 0.020614916
39 0.025044475 0.03223808 -0.0003069111 0.0017592938 0.032192536 0.009894484 -0.03153878 0.012315592 -0.013262038 0.013699458 -0.009242576 -0.0016339879 0.025797209 -0.01990173 0.024648065
49 -0.013651443 -0.017915053 -0.008455551 0.007975856 0.015742248 0.011341164 -0.012423419 0.020857006 0.013639522 -0.032502666 0.014347817 -0.016018627 0.0035085971 0.0075323028 0.00383071
18 0.02943827 -0.0013581077 0.0040025427 0.020051587 0.037675343 -0.005365866 0.023968259 0.002555299 0.0013164314 -0.021452835 0.0056721284 -0.0066748126 0.007183756 -0.013064209 -0.011823095
7 0.007088842 0.008310747 -0.02122854 -0.026092507 0.026576202 0.024139216 -0.015722599 0.013420185 -0.020889344 0.0036873634 0.01925833 -0.004978564 -0.006805218 -0.027890502 -0.018997649
103 -0.0326285 0.007848459 0.016617374 0.019623607 -0.00979308 -0.025480391 0.020207884 0.027321918 0.02231787 -0.012368172 -0.020258155 0.009004161 -0.011774787 -0.013186317 0.0074209925
42 0.009471184 0.0113797 -0.002412313 -0.012070216 -0.0020568562 0.036597557 0.027293647 0.024014676 -0.036656573 0.023627898 0.031824075 -0.015199064 -0.011897089 0.024835102 0.026315736
52 0.016106993 0.0100190295 3.555695e-05 -0.010991123 -0.008965035 -0.0023468656 0.012286778 0.003640803 0.0296299 -0.027580094 -0.022727394 -0.03190631 -0.018284356 0.027300421 -0.01727757
56 0.022051116 -0.009855531 -0.01519348 0.015371753 0.029828934 -0.017564822 0.018319264 -0.01220889 -0.037152454 0.003571404 0.010692622 0.007903386 -0.027286597 0.0037297425 0.032232963
72 -0.017397357 -0.020482479 0.018423133 0.033637267 -0.010150919 0.03214602 -0.011355342 -0.009099878 -0.009942209 -0.011451559 0.009852007 -0.015369612 0.019486656 -0.025242086 -0.01634373
104 0.02886214 -0.009492586 0.027120572 -0.008347674 0.033237454 -0.027052682 0.0021788361 0.011551047 -0.017933492 0.026429335 -0.01410959 0.018871464 -0.0037451135 0.019258402 -0.007931929
44 -0.03426485 -0.031305034 -0.0062943283 -0.0063908775 0.006009502 0.018767651 -0.010031918 0.0074213715 -0.022686386 0.028578877 -0.01491937 -0.018742995 0.019290695 0.018802091 0.006625595
98 -0.027559694 -0.013641626 0.031424448 -0.025707107 0.017776234 0.009200371 0.0012959264 0.019645426 0.008216163 0.024266692 0.034463346 0.02684368 -0.015111869 0.0063173464 0.006707754
35 -0.022066902 -0.005035034 0.006225415 -0.026036626 0.039230496 0.02232856 0.015301758 0.022654882 0.018392246 0.0040012724 -0.017629275 -0.003987626 0.030856155 0.003984228 -0.020533223
38 0.011344058 -0.034043282 -0.020389631 0.014090185 -0.0054930486 -0.027718725 -0.003505731 0.03593641 -0.005190864 -0.012451589 0.018135779 -0.0066734273 0.023685718 0.010300821 0.002990376
48 -0.020024663 -0.023493078 0.01712084 -0.018231269 0.025924284 0.025234986 -0.014602862 -0.0010954569 -0.0051879967 0.030212589 0.030053793 -0.020703295 -0.0084722275 0.01997638 0.0009686961
46 -0.032048225 -0.010485366 -0.009127614 0.030182557 -0.01361613 -0.000616036 0.027734574 0.027609877 -0.004697235 0.010382831 0.0322008 -0.027877912 -0.02866592 0.01908264 0.020103386
5 -0.018703924 0.022703381 0.027045172 -0.030109486 0.03735599 -0.025972385 0.035290394 -0.017784135 0.015743665 0.012677228 0.035472266 0.024271796 -0.029784871 -0.004638835 -0.003907653
41 -0.009306379 -0.028472167 -0.02710922 0.007779294 -0.0121682165 0.0012337107 -0.0037987535 -0.0077986964 0.004637447 -0.023399604 -0.008535708 0.022279102 -0.01621628 -0.025088916 -0.00331345
81 -0.017615886 0.032649167 0.023627948 0.0056350934 0.039040778 0.023292402 -0.024843311 0.013926124 -0.012190523 -0.0044925623 -0.012205233 -0.00075325713 0.030672682 0.017658273 0.00778098
36 0.026405083 -0.026619785 -0.00964302 -0.03188945 0.036675956 0.035690606 -0.011894764 0.027261015 -0.0044045905 0.014217254 0.021333221 0.02284735 -0.008547731 0.021310553 0.009143111
2 0.019656988 0.018395621 0.022003539 0.02746857 -0.0014389835 -0.021301128 0.018447658 0.00083273085 -0.024363225 -0.034786202 0.010505458 0.009066207 -0.018852772 -0.024585495 -0.0061023
75 0.020400912 -0.0058255205 0.023215983 0.02221165 0.012584281 0.02188729 -0.00972277 0.0023474316 0.015332246 0.009671709 -0.03131854 0.0267521 -0.009151912 -0.036494493 0.033172876
28 0.0011905038 0.012493277 0.023674415 -0.02456229 0.01647523 0.0026189166 0.029791694 0.030278942 -0.0047965175 0.019754022 0.016141616 -0.008341569 0.005361729 0.007498977 0.024817597
60 -0.015593254 -0.023086896 0.0054211332 -0.020210912 0.027378973 0.024412805 0.026433513 -0.015617056 0.027818417 -0.007341994 0.022038614 0.019376038 0.02433246 0.0019931037 -0.029725453
27 0.017636904 0.01324996 -0.018350797 -0.024053777 0.024757331 -0.023386115 0.0040238444 -0.0109437145 -0.024464872 -0.013306323 0.024668582 -0.030354906 0.02768411 -0.008113662 0.030192833
71 -0.013881123 0.009442078 -0.008362727 0.027284432 0.008860227 0.005871272 0.029193532 0.009340762 -0.043056864 0.018315688 0.013275004 -0.006623353 -0.010713543 -0.03553286 -0.0113256
32 0.009825982 0.007341765 -0.021414744 -0.006790923 0.020644668 0.0144550875 -0.027067265 0.018808177 -0.014135771 0.025412844 0.028489333 -0.029497098 0.03146611 -0.022314223 0.030523203
65 0.028956613 0.004332478 -0.018631002 0.024246857 -0.014486449 0.0042835316 0.013697002 0.0060060844 -0.03489911 -0.026140487 -0.0010938082 0.011469637 0.023918966 0.01174264 0.032842677
37 -0.0036123747 0.021843553 -0.004883861 -0.019356942 0.025187572 0.014508839 -0.02597523 0.01694587 0.012146591 -0.027546896 -0.0007968945 -0.005247118 -0.0006963132 -0.03610985 -0.0198157
105 -0.022768281 0.02002585 0.011901425 -0.030185625 -0.020045552 0.0044642203 -0.02081057 -0.020801442 -0.022524118 0.020137064 0.0071656443 -0.030831369 -0.0036371883 -0.019962706 0.018883422
19 0.029906292 -0.028817624 -0.032008335 -0.01906542 0.029864233 -0.00021974905 -0.014583912 0.021824349 0.02622682 -0.029275188 0.008267029 -0.013150884 0.017063556 0.02555485 -0.005101444
83 -0.0005026879 -0.021280322 0.025300985 -0.017604306 -0.0063508693 0.010489485 -0.012127526 0.0043074777 0.013922638 -0.016864812 -0.022235224 0.018727472 0.009706727 -0.033420347 0.015614877
101 0.020713022 0.019562833 0.0007287429 -0.006515948 0.033094227 0.006133182 0.035556342 0.034221657 -0.0084282 0.010984006 -0.0038911928 -0.010607813 -0.007469467 -0.024834817 -0.0006831792
25 -0.024634661 0.0074865054 0.027162163 -0.005042701 -0.0073451838 0.022606434 -0.019944206 0.013597899 -0.011067583 0.007396066 -0.02285123 0.019593546 -0.029881014 -0.02239248 0.030717632
53 0.01891849 -0.01138252 0.032915693 -0.0012778353 0.016199764 -0.019870643 0.005304892 -0.010071824 0.013057641 0.017516365 0.030749291 -0.017798897 0.019270489 -0.0011315676 -0.006895109
102 0.015001123 0.026301334 -0.012255055 -0.019409323 -0.017720219 0.023688138 0.034661394 0.0001980028 0.0031064572 -0.013856658 -0.0051922915 -0.013478021 0.013008003 0.024779143 0.023472661
77 -0.003083391 0.03141612 -0.026367463 0.022570292 0.024462823 -0.026678104 0.034540806 -0.015243401 0.0076720174 -0.011612239 -0.02076573 -0.005501327 -0.027370343 -0.007248148 -0.028038334
58 -0.02615602 0.012319369 0.032405555 0.028956521 -0.005951209 -0.012558251 0.021038143 -0.0017579433 -0.020843405 -0.008576709 0.015039212 0.020938458 0.0074969195 -0.008999739 0.01388076
87 -0.0101549 0.017777726 0.020989459 -0.0057889847 0.027858865 -0.01814022 -0.005799328 0.037645582 0.025220228 0.025195405 0.011170629 -0.013992534 -0.007490449 0.0023779166 0.026269894
62 0.0101372115 0.025151528 0.02614647 0.00097636494 -0.0068937754 -0.002127546 0.016978566 -0.025767397 0.021372804 0.0015735468 0.034535214 -0.022777189 -0.030014573 -0.0070825974 -0.011140858
84 0.031779032 0.027491122 0.010711024 0.01117095 0.02568069 0.025240792 0.009892331 0.011381707 -0.022178492 -0.014345956 0.032247547 0.009827082 0.028240405 0.0031449206 -0.01689108
12 0.015709952 -0.014263036 0.02387846 0.023234235 0.038808573 0.015794298 0.03696413 0.014928856 0.01150423 -0.030762373 0.03286675 0.033279072 -0.016426457 0.024392623 -0.026369544
78 -0.0015417073 -0.026026757 -0.0070947143 0.03295414 -0.014054519 0.03541893 -0.018723164 -0.0074140746 -0.043156162 -0.0158569 -0.0114739025 0.0007452808 -0.0059354845 -0.036698792 0.014019652
82 0.014825799 -0.028117932 0.025772193 0.027618846 0.029191352 -0.0031702484 -0.020952946 0.010677561 -0.0010143078 -0.0032043122 0.025749436 0.0013750416 -0.017222878 0.019275252 -0.004908068
106 0.021258473 0.0010022107 0.0036320973 0.018230265 -0.0033230395 -0.021660965 0.010051475 -0.024335727 -0.022282926 0.007598614 0.03245726 -0.003984079 0.033696983 0.012023867 -0.025045639
95 -0.0073392587 0.0015137532 0.022806209 -0.0070605306 0.00862304 -0.010033455 -0.023735438 -0.0025793123 0.008399023 -0.011403364 0.01028478 -0.032545984 0.031942416 0.02285259 0.0027144628
99 0.00028513843 0.0018251088 -0.013261962 0.0036379658 -0.021711066 0.034788832 0.009241959 0.037005533 -0.039430138 0.00073679327 0.025237676 0.020960687 -0.0051508946 -0.023602434 0.033973526
55 -0.03196929 -0.029896924 -0.014667141 0.017493358 -0.028884983 0.02399871 0.017175127 -0.00026990336 -0.00054057117 0.01617279 0.010068716 -0.01801539 0.0173657 0.003731632 0.0035409736
88 0.0008398955 -0.032611668 -0.0026679046 -0.0053353016 0.013260328 -0.024220495 0.01566094 0.040537395 0.016075343 -0.023753347 0.02720257 0.004938228 -0.028258942 0.0068940655 0.012699736
79 0.021987133 0.026432274 0.024608057 -0.0034717694 0.008846316 0.011961432 -0.027411519 0.010811456 0.025108421 -0.025569782 -0.0007799738 0.016354848 0.0108801015 0.021070682 0.03137795
86 -0.014921111 0.027219499 -0.020975914 -0.016769283 0.032920968 0.01774684 -0.011036823 0.029393135 -0.008863821 0.005318825 -0.011203681 -0.01880971 0.027421704 -0.03217004 -0.024956625
61 -0.027316215 0.018147249 -0.016366685 0.010760425 -0.009808524 -0.022359183 -0.014581211 0.019296134 0.024835618 0.03060604 0.023762392 -0.016115239 -0.011420666 0.0028675573 -0.000108968394
54 0.02488849 0.005818255 0.015586898 0.024988914 -0.0034014974 0.02118026 -0.010315294 -0.0032769223 0.020903535 0.02628493 0.0071199583 -0.0050621754 -0.008826973 -0.0013826976 -0.017730547
59 -0.0035120945 0.02375164 -0.0052974494 0.006650144 0.018808147 0.0055744713 -0.017118985 0.03353353 0.014769919 0.005552009 -0.029030953 -0.0061399066 -0.0041042604 0.0309296 -0.02455365
