110 15
0 -0.007614257 -0.012148658 0.039637286 0.0025437847 -0.036348093 0.022540627 0.055384323 -0.035953313 -0.019001316 -0.04214116 0.039611183 -0.00850881 -0.018399855 -0.0041098935 -0.05899725
4 -0.012010037 -0.0029079258 0.0051868632 -0.0070212767 -0.031351484 0.009840117 0.065175205 -0.05081336 -0.020801403 -0.044183616 0.081827976 -0.0363235 0.027201843 0.005451628 -0.0585239
1 -0.021612829 0.0039859083 0.004273843 0.012182733 -0.017108684 0.002981633 0.060404737 -0.06305718 -0.032024294 0.0085720075 0.04120293 -0.0035033964 -0.026186759 -0.0473706 -0.078434676
17 -0.0083054975 -0.00027348148 0.032596342 -0.034225952 -0.005599754 0.039365884 0.04376272 -0.056171373 0.01599847 0.013797171 0.060188845 0.008453254 -0.01635092 -0.017429138 -0.06945574
16 -0.00058614067 0.014885432 0.03396144 -0.026320048 -0.025674542 0.029037617 -0.0005665058 -0.04063685 0.000101597325 0.009026353 -0.00041655567 0.018221807 0.007984956 -0.023895195 -0.024366017
8 0.0038238268 -0.006972211 -0.009794163 -0.00841735 0.02526217 0.014263555 0.020782126 -0.034575034 0.01053752 0.016439606 0.06619321 -0.033333782 0.035775516 -0.008517092 -0.061634533
14 -0.004523953 -0.000113546295 -0.015029857 0.020341938 -0.018522715 0.029059837 0.017792476 -0.049031712 -0.008002727 -0.009731131 0.034870125 -0.044799678 0.011451064 -0.03827707 -0.055678535
11 0.024968917 0.0035228124 0.03910639 -0.033652574 0.001725116 -0.012772381 0.004982476 0.009152489 0.010022117 -0.020975178 0.0030730895 -0.04349562 0.03583148 -0.014069299 -0.020447593
20 -0.024621105 -0.026156941 0.04087804 0.0027223902 -0.028619677 0.006356747 0.06549663 -0.02216297 0.017278936 -0.0069782855 0.053061076 0.0049081263 -0.017987197 -0.034662317 -0.04437448
69 0.004130125 0.018406877 0.012275998 -0.00045039546 0.0035056558 -0.023273915 0.016483461 -0.027427064 -0.015852049 -0.030587498 0.06278021 -0.032792956 0.030738 0.018634368 -0.03446418
66 0.005781876 0.019948967 0.029812075 -0.03775119 0.0032076451 0.018606005 0.028184064 -0.033415396 -0.0029917136 -0.017256742 0.05329013 -0.011683782 -0.02589947 -0.025843149 -0.040039435
62 0.021543106 -0.005042189 0.030876208 -0.040981945 0.0064939638 0.013854477 0.054789096 -0.0470095 -0.008268636 -0.017861044 0.043748196 -0.012640498 0.011724043 0.0182851 -0.060261574
18 -0.010761241 0.01792333 0.02350039 -0.03998797 0.00897615 -0.001244647 0.046413172 -0.01877337 0.015627563 0.0001241309 0.052415274 -0.007611303 -0.0082045095 -0.014649119 -0.028095929
71 0.025789345 -0.014938441 0.048164975 -0.025381822 0.000800352 0.034874003 0.019694518 -0.014442853 -0.02898935 -0.0402749 0.05901513 0.0065196003 0.029186742 -0.027857581 -0.07300497
9 -0.009445828 -0.011394591 0.012473545 -0.03761499 0.025159879 -0.008498885 0.027529584 0.016151113 -0.013033254 -0.03531226 -0.0103644915 0.014601412 0.027556641 -0.028044194 -0.024091398
64 0.0031683631 0.014567604 0.019574577 -0.018885175 -0.035526175 0.023472631 0.029894862 -0.00073572353 -0.031396955 -0.004401478 0.06720248 -0.01288714 -0.024662692 -0.009317315 -0.019509595
31 0.0039004553 -0.028077343 -0.009091134 -0.036345646 -0.02137256 0.036800507 0.018180734 -0.01955074 -0.03145224 -0.03461809 0.047310866 -0.022548376 -0.016217548 -0.0353828 -0.016790248
22 0.0032662929 0.014831441 0.0053163273 -0.022860605 0.0056298566 0.0114251645 -0.008906372 -0.048794005 -0.03009417 0.010479592 0.054634657 0.009653803 0.015592769 0.008310963 -0.021358004
34 -0.019206999 0.0038372776 0.028920986 -0.0019412236 0.013302777 -0.019873474 0.029550506 -0.004273246 -0.019211119 0.0046256096 -0.0020625573 -0.03826207 0.027726855 -0.03235267 -0.057219245
37 -0.027282333 0.024806809 0.041411694 0.007938867 0.0049489136 0.012670832 0.025121309 -0.03587654 0.0033807359 0.009987017 0.02267283 -0.005574162 0.007472108 -0.03997172 -0.04613078
32 -0.02194881 0.00035390793 0.021082664 -0.009646221 -0.02522351 0.008874887 0.02100761 -0.021287357 -0.026274934 0.024991347 0.0318943 -0.0142841 0.025511758 -0.033826 0.012829124
24 0.025666168 0.031318303 0.03863268 -0.027329037 -0.006750956 0.0046184817 -0.012606684 0.012959604 0.02466698 -0.020798381 0.0070186304 -0.007705283 -0.008851991 -0.015925437 -0.03780706
30 0.00494321 0.019967813 -0.02087311 -0.015393616 0.023956234 0.01100404 0.021179419 0.025697237 -0.017966306 -0.029293556 -0.005251456 0.006327988 -0.020594647 0.026177045 -0.011170284
74 0.0035771087 -0.016299402 -0.00060447137 -0.023055954 0.005711101 0.007443577 0.011909167 -0.019546239 -0.031088032 -0.03767651 -0.008552108 0.017000185 0.0007667214 0.02181549 -0.048685133
103 0.025132526 -0.021853846 -0.018009052 -0.008535473 -0.018822385 -0.0008586379 0.05161652 -0.04357247 0.027363157 -0.03399435 0.055014115 -0.04322665 -0.0030348292 -0.026364846 -0.03646677
88 0.026954092 -0.018946964 0.043434363 -0.035006437 0.015802607 2.4912588e-05 -0.0016500325 -0.05397963 0.021429472 0.016042685 0.0011613579 0.012765516 0.02460384 -0.0036670882 -0.041207958
10 0.005872472 -0.0118417535 0.03265452 -0.025689268 0.012073512 0.01332737 0.034510322 -0.028868154 5.6347184e-05 -0.034787472 -0.0076213963 -0.002253504 -0.008013379 0.0013739362 -0.04893201
23 -0.0045978203 -0.021565326 0.03389024 0.031111866 -0.01424424 -0.0153373405 -0.008718968 -0.012495462 0.02267822 0.017882856 0.016507393 0.011029262 -0.029902466 -0.032050997 -0.016871136
97 -0.030490726 0.0070126355 0.005893883 -0.01251122 -0.018658342 0.028693365 0.014679986 -0.01739193 -0.013773361 -0.04037762 -0.0034568952 -0.027657982 0.022299124 -0.0049206954 -0.04995614
15 -0.02503336 -0.01854458 -0.019660845 -0.024513908 0.025021955 -0.00049541774 0.035626456 0.021605415 -0.016181951 -0.026548253 0.038288377 -0.028488474 -0.029267764 0.010890073 -0.0040644715
6 -0.027698848 -0.011635559 0.0014629487 -0.00918032 -0.022892134 -0.018381748 0.040075347 -0.008363532 -0.028171057 0.0022188718 -0.0032193342 -0.00826153 -0.023080427 -0.026373522 -0.048277073
92 0.030255612 -0.023053747 0.018049201 0.000227006 -0.028384374 0.02608581 0.033749178 0.0035006974 -0.01494251 0.020500373 0.04987031 -0.03662802 -0.0030249776 -0.027577544 0.005467267
19 -0.013541959 0.016238792 0.0218988 0.02520659 0.0054732766 0.00641548 0.013569408 -0.014412791 -0.016546851 -0.035861094 -0.020395936 0.014249035 0.0011017474 0.007907987 -0.036466934
29 -0.028856046 0.020262487 0.0010855134 -0.00097082765 -0.014215184 0.009008918 0.034460366 -0.029341867 0.0074328943 -0.017751563 0.052987583 0.011743513 0.025752285 -0.010814312 -0.04725483
48 -0.00274019 0.020335086 0.008363559 -0.009332035 -0.0011642706 0.03372655 -0.000992947 -0.04853647 -0.027355917 -0.00068867626 0.01629607 -0.031324565 0.03517786 -0.043008782 -0.049614303
3 -0.013256463 0.031479925 -0.011206018 0.01265904 0.012336809 -0.0025311392 -0.013735868 -0.027957257 -0.031797428 0.0011065105 0.0058169626 0.0066623716 -0.010830511 0.025208874 0.014665438
75 -0.030254114 -0.025457308 0.029605785 0.018349716 0.012700325 0.005043291 -0.010696635 -0.03248691 0.021325856 0.009274454 0.00490205 0.011474145 0.009295955 -0.023803337 -0.03217904
93 0.031106519 -0.01676552 0.006882856 0.0058415625 -0.019290006 -0.004222915 0.03916863 -0.013296009 0.0014912955 -0.016059922 -0.013155807 -0.024028106 0.010643747 0.019681035 -0.03955917
54 0.010440428 0.023185685 0.02111754 0.020485606 -0.024933098 0.00040769283 -0.004091991 -0.020243824 -0.02697774 -0.0031003496 -0.0036831093 -0.037259977 0.0187389 -0.007380429 -0.0034041863
70 -0.030075796 0.0307351 0.02123508 0.016632937 -0.012715177 0.03347715 0.006384502 -0.029560251 -0.018568661 0.020946797 0.03252579 -0.005928656 -0.022063363 -0.002379538 -0.019869896
83 0.008540853 0.017700491 -0.006444189 0.0066636363 -0.010463437 0.011712264 0.0047935746 -0.023019468 0.017213045 -0.009435612 0.0499754 -2.4381385e-05 0.019438112 0.0046614734 -0.0399941
51 -0.023736278 0.016420668 -0.0046322295 0.020043876 0.025845483 0.01061189 0.0064508654 0.024669506 0.025217514 -0.017628152 0.0020132111 -0.02422544 0.024635086 0.02588534 -0.01095309
106 0.019537887 -0.013236039 0.026300281 -0.009263673 0.010222485 0.021194251 0.031032784 -0.021682398 -0.020946326 0.008352437 0.024074513 -0.02873224 -0.010186801 0.014948859 -0.028338008
96 -0.010504159 0.021228287 0.028547771 0.015959114 0.026733547 0.010010712 0.021213874 0.0004605567 0.026845256 -0.008448392 0.03986713 -0.020251935 0.011590385 -0.012325155 -0.049491633
98 0.015158034 -0.02857979 0.023671135 -0.030041035 0.020879557 0.0004787441 0.026419139 0.011848065 0.02856921 -0.03275324 -0.008851313 0.015506627 -0.00017505791 -0.004414746 0.014635616
33 0.018038092 0.009873206 0.004012462 -0.030591246 -0.0018805302 -0.020965565 0.040949967 0.0192136 -0.02411209 0.029716033 0.0065738196 -0.016579233 -0.0019652944 -0.027411856 -0.034125425
13 0.029949509 0.031739566 -0.012724989 -0.028227573 0.015696205 0.007222093 0.010893256 0.0018099861 -0.0025238218 0.019189626 0.025424052 0.027402187 0.00639248 -0.013764187 -0.04101783
26 0.020635296 -0.0009795334 -0.010192096 -0.02370795 0.026416041 0.026945446 0.023763904 0.0037208982 -0.021605156 -0.009123346 -0.013724671 0.00071009743 -0.019147564 -0.012296619 -0.029069426
49 0.0047528544 -0.027470713 0.035602037 -0.03371761 -0.014309647 0.021603027 -0.010384969 0.0039227717 0.006377749 0.021515412 0.038236655 -0.004000054 -0.024259351 0.016030218 0.021758484
77 -0.0015748561 0.027598424 -0.022233032 -0.0010112239 -0.0069386894 0.02949839 0.03065442 -0.044743128 -0.013368075 -0.02218445 0.037910514 0.021693375 0.026883038 -0.036851466 -0.036283337
5 0.029919902 0.003727456 0.030009132 -0.03442082 0.025729192 -0.016905738 0.018449036 -0.0030160088 -0.0055642617 -0.031393692 0.028834576 -0.01235758 -0.021646539 0.015326684 -0.013425748
38 -0.031007852 -0.015346218 0.02871612 -0.010540754 0.013695126 0.01932954 -0.007235391 -0.019842211 -0.0351206 -0.012534114 -0.013783882 -0.001007525 0.022373565 -0.013416146 -0.0043574455
45 -0.021013483 -0.010910496 0.023823518 0.0013581784 -0.032855388 0.0042255083 0.028029444 0.014640285 0.011748477 -0.01437098 0.046841 -0.035154395 -0.027766015 -0.010057813 -0.01969269
99 -0.024952218 0.013723988 0.026115054 -0.02894819 0.02901466 -0.027181232 0.020499809 -0.04697953 0.020106914 -0.011829418 -0.0034031011 -0.03977922 0.009021675 -0.030784642 -0.04841371
76 -0.0073166005 -0.02531174 -0.0079450365 0.015967555 -0.024406318 -0.017012099 0.014562663 0.0007264515 -0.015730616 0.0077796746 0.03633274 0.00680679 0.031546455 -0.038675886 -0.0026067144
44 0.029990958 -0.012614209 -0.00806106 0.016252475 0.0067128884 -0.015229358 -0.021250218 0.01673717 -0.010798682 -0.0038550552 0.01174719 -0.0108574405 0.030829713 -0.010677592 -0.043513607
7 0.009951734 -0.024252336 -0.009779216 0.0255552 -0.0127736805 0.010650245 -0.014569397 -0.0011240335 0.017942622 0.022907611 0.02454731 0.012917172 0.0056855604 0.019262442 0.010809529
105 0.029192124 0.027222816 -0.0049360422 0.012967484 0.017790552 -0.020993132 0.041416988 0.0034032934 -0.0015502968 0.01768209 0.023036318 -0.01190574 0.017110331 -0.023352904 0.0041646203
47 0.012628207 0.00990691 0.02445157 -0.03658993 -0.013247778 0.010730161 -0.017050214 -0.0025592782 -0.03426818 0.016297981 0.016047327 -0.020376498 0.0010275841 -0.035607513 -0.043453295
43 -0.010425819 0.02627646 -0.005230555 -0.025508761 0.0223036 -0.0057583014 0.023711812 -0.028112797 0.018453736 -0.01616981 0.02698239 -7.362745e-05 0.028820332 -0.013353251 -0.055250846
65 -0.0057779755 -0.006776505 0.028301891 0.024004627 0.017808907 0.024046512 0.019513011 -0.0119576575 0.010128196 0.005594412 0.037450127 0.0014502006 0.023729376 -0.036988556 -0.01324844
53 0.002914506 -0.029315189 0.013981821 -0.012632943 -0.005841193 -0.012107635 -0.018514002 -0.02927044 0.030909734 -0.004891933 -0.0013499856 0.019422933 0.034837246 0.008845819 -0.045867927
58 -0.0013403684 -0.014996379 -0.019879416 0.012002013 -0.024645742 0.034265503 -0.015133863 -0.013072291 0.0032215063 0.010291186 0.007722834 -0.026969519 -0.017867992 -0.000937899 -0.039832555
108 -0.0018253024 -0.017176528 -0.005207653 0.0022147885 -0.029906143 -0.020782635 0.015417913 -0.009452155 -0.02302799 -0.019560333 -0.010234214 0.009566263 0.018282246 -0.04015917 -0.029929778
25 0.017099353 -0.009994646 0.011404897 0.0070810243 -0.015837066 0.03029345 0.04063219 -0.017734617 -0.023288682 -0.0061478745 0.036456212 -0.020876126 0.01803671 -0.03409975 0.005836075
90 0.012513276 0.025815867 -3.326842e-05 -0.010976438 -0.019165661 -0.014450666 -0.0061482694 -0.012503212 0.019328577 -0.009187938 0.0100729 -0.01776081 -0.004173824 -0.036849212 0.012943684
102 0.014371684 -0.014910738 0.0021529063 -0.014601633 -0.01762123 0.0171926 0.008994948 -0.029039135 0.01574796 0.015851034 0.023086626 0.013270895 -0.0013713089 -0.035453442 -0.020861886
40 0.008756339 -0.023898363 0.039441776 -0.016306901 0.022069294 0.03246346 0.029369177 -0.028611042 0.0073248195 -0.0014513077 0.045679454 -0.036125682 0.036128398 -0.025787432 -0.013761197
35 -0.031358186 0.0063837953 0.02465968 0.02687528 -0.017464843 -0.0168541 0.040582154 0.0005871998 -0.03439277 0.009278987 0.02490909 -0.018433657 0.016409649 -0.008657595 0.006896519
56 0.006415331 0.016433796 -0.018612335 -0.0054935357 -0.022441063 -0.002277419 0.031858247 -0.01809925 -0.007037552 -0.0141559895 0.03973042 0.01262137 0.0024808254 -0.013810994 -0.03846582
46 -0.017563498 0.012388599 -0.012931099 -0.009055376 -0.01399956 -0.022727652 0.027734792 0.0051975027 0.027766528 -0.03632177 -0.008182379 0.009845688 0.018082028 -0.018339254 -0.024125684
42 0.008079164 0.011948909 0.015192327 -0.027559703 0.0109946355 0.023189168 0.008017737 -0.021124678 0.004926374 -0.007993092 0.0017669327 -0.016347092 -0.017943688 0.011409518 -0.055625573
2 0.021451972 0.022506367 -0.010340868 -0.01203936 -0.031691417 -0.0275551 -0.0034486824 0.0059652664 0.014115624 -0.008443418 -0.017312389 0.018995885 -0.0044008545 0.00033687946 0.016583018
39 -0.017563468 0.017512126 -0.007958951 -0.024508098 -0.0003296323 -0.022674298 0.010068342 0.009350303 0.016746916 -0.02037095 0.021811612 0.013585411 -0.026144017 -0.035852965 -0.00826663
28 0.031093048 -0.027601944 -0.01806242 0.02472239 0.0065644905 -0.01408282 0.038852744 -0.033717193 -0.033591717 0.015300412 0.03382217 -0.025194844 0.008041174 -0.03804601 -0.012627233
87 0.026605507 -0.0046715266 0.0075487327 -0.002268835 0.020504612 0.018980226 0.035498593 -0.0075824335 0.0038572697 -0.015961695 0.043523297 -0.023088641 0.0023557954 -0.008683172 0.0076267826
100 0.016900914 -0.010078303 -0.02348489 -0.024280163 0.025051076 -0.022159887 -0.013602647 -0.026110353 0.0122352205 -0.0040546698 0.039433785 -0.0015040571 0.021130813 -0.009684002 -0.037393514
36 0.009745176 -0.00996747 0.031803478 0.0080338055 0.020265263 0.016701985 0.023433534 -0.034908768 0.022060404 -0.033499427 0.0077037 -0.020504426 -0.011698288 0.024683807 -0.0180281
109 -0.0043488387 -0.019879222 0.012209685 -0.02903388 0.010517486 -0.008935167 0.04673443 -0.033362295 -0.030753035 -0.00061216584 0.023589257 -0.008234516 -0.0045762784 0.0060884855 -0.025199533
94 -0.025394095 -0.012193078 -0.016980832 0.009369238 -0.021249197 0.02429775 0.03427934 0.0034658646 -0.022293566 0.024844248 -0.021908423 0.015925664 0.0039359597 0.010257473 0.024847416
27 -0.00934372 0.012968529 -0.021484846 -0.027552798 -0.009566658 -0.02703836 -0.007777621 0.01785222 -0.01742458 0.028279133 0.009546202 0.010775328 0.023499895 0.02180618 -0.024321469
95 -0.021436308 0.028669544 0.022706566 -0.023528634 -0.014647939 -0.02122969 0.031028675 0.0042311177 0.0044612978 -0.0104761 0.030542618 0.019375956 0.017093316 0.014535203 -0.056009464
72 -0.0027987207 -0.008104596 0.033859704 -0.038711086 0.012385758 0.007827623 0.042512145 0.01368063 -0.024200017 0.0013540316 -0.009843752 -0.016737852 -0.028738318 0.0032404857 -0.02611495
67 0.029043071 -0.004347761 0.025468802 -0.019364692 -0.015165515 0.013528932 0.0314524 0.009056836 0.015916998 0.030848615 -0.024144456 -0.012847882 0.0034980415 0.029227398 -0.00034538843
107 0.00081633095 -0.004273364 0.02353766 -0.003452528 -0.00793464 0.0041542826 4.968699e-05 -0.011611945 -0.026068678 -0.014893311 0.03678125 -0.031464856 -0.01861421 -0.02560184 -0.023415368
52 0.030025305 0.034147736 0.005324752 0.009464521 0.025697293 0.013024356 0.004478857 -0.0013935228 -0.021478746 -0.01721201 0.025229082 -0.0064729634 0.002005922 -0.024775239 -0.029518647
59 0.008133276 -0.022894334 0.04188852 -0.031209733 0.01617686 -0.014923269 0.04203839 0.010332949 0.026778648 -0.011816676 0.013606435 -0.031024547 -0.01543865 0.007390847 -0.014476469
84 -0.03244844 -0.003316522 0.031756826 0.00956327 -0.033817377 -0.009679304 0.01142018 -0.014774296 0.011746334 -0.018974064 0.031012023 -0.024681991 0.015419482 0.008892221 -0.04351343
41 -0.011445046 0.018042272 0.01921011 -0.0103280265 -0.014884844 0.022155887 0.009027679 0.016021173 0.012225667 0.024875246 -0.0121040465 -0.0014676363 0.011133382 -0.0056673307 -0.013386743
68 -0.011508268 0.03034963 0.015534711 -0.010693436 -0.0017919132 -0.016827546 -0.02775527 -0.024360638 -0.0323643 0.008803394 0.010511438 0.030274775 0.032037884 0.010695623 -0.0069000944
79 0.015268381 -0.027180431 0.01211678 0.0066912044 -0.0027615805 -0.003958667 0.0015913107 0.004217075 -0.022685364 -0.029508268 -0.00606459 -0.025650784 0.016339656 0.008034601 -0.018794212
91 -0.030396659 -0.016312944 0.0054859985 -0.021831932 0.0036382445 0.010213927 -0.0019386247 -0.024791975 0.0135739185 0.009757371 0.04409782 -0.030833302 -0.01824123 0.00048742874 -0.01856538
50 0.006214901 0.023164697 -0.0047106054 0.024637744 -0.005531925 0.0073716645 -0.014922842 -0.027120017 0.019333206 0.021771137 -0.0063485736 -0.028441498 0.026905224 0.017703181 0.020693757
61 -0.0053583626 -0.018523555 0.015585316 0.0062036305 0.0074739773 -0.019659294 -0.015351034 0.013243442 -0.023534909 0.0130018415 0.021704407 0.0064040096 0.021587037 -0.035314802 -0.034143526
80 0.01587517 0.00011267267 -0.02841424 -0.0076473393 -0.018763185 -0.009733395 0.018822078 -0.016472526 0.014205183 0.014726355 0.005939894 0.021123571 0.03159976 -0.02123453 -0.027099472
81 0.010904776 -0.003954793 0.018271115 -0.0083298385 0.010043178 -0.025746735 0.028602846 -0.003550794 0.031802703 0.0246975 0.0024659338 -0.013939032 -0.024442878 -0.007405604 -0.024287667
57 -0.0012017139 -0.0014780179 -0.012817764 0.002035303 0.016024634 -0.01333035 0.0071503585 -0.0015857376 -0.0210497 -0.035166226 -0.0018574325 -0.0028680214 -0.030236848 0.024589775 -0.010290001
101 -0.023763701 0.027105592 0.0044908402 -0.012725864 0.009587119 0.019639319 -0.007952514 -0.035218332 -0.0063015297 0.014699765 -0.002963728 -0.012756102 0.02953911 -0.0015258135 0.01009915
55 0.016329113 -0.0038720176 0.015277126 0.031012816 -0.019664098 0.018559856 0.0346599 -0.016434876 -0.018761769 0.0030312398 -0.025708593 -0.012177622 -0.027256241 0.0206129 -0.018957378
89 0.029780252 0.02389666 -0.017834984 -0.014651785 0.019696586 0.03408998 -0.017759718 -0.028959233 -0.0195024 -0.0071410923 0.03899856 -0.0076213474 -0.02234535 0.016991623 -0.031501316
21 -0.0007746319 -0.019313853 0.0065124226 0.023862114 0.0069835414 -0.022146013 -0.0014547298 -0.031652976 -0.029902708 0.017696485 -0.022152048 -0.00493677 0.011350214 0.022795571 -0.008890374
78 -0.008641438 0.015585195 0.013310784 0.009056523 -0.026564319 -0.02370709 -0.0031401904 -0.03766679 -0.00162598 -0.027710179 -0.0066590128 0.02829421 -0.009476986 0.01759602 0.0070461575
104 -0.012521316 0.017488535 0.02773686 -0.013303005 -0.024591804 0.012554064 0.015924292 -0.03423909 -0.020590672 -0.034124408 -0.011826677 -0.033660725 -0.016895203 -0.029416688 0.009863665
85 0.028549468 0.004548158 0.019868579 -0.030213421 -0.023523629 0.028050166 0.0036110785 -0.02332924 -3.0848983e-05 -0.0064313794 0.035296533 -0.03359761 0.031012198 -0.033877496 0.019459654
82 -0.012303985 -0.02397901 0.004850029 0.020868018 0.020058023 0.0034572133 -0.0009884329 0.003096234 0.0070634703 0.013487786 0.011471992 -0.028507913 0.0035233714 -0.008300786 -0.036381546
63 -0.006042059 -0.02698605 -0.0052997987 -0.023650581 0.025636576 -0.030410744 -0.028228423 -0.03302254 -0.011164997 -0.004449396 -0.023459513 0.009765402 0.01668498 -0.006019246 -0.005031109
60 -0.008457745 -0.026843572 -0.02690824 -0.016166333 0.028044067 -0.014741959 0.029503455 -0.005378281 -0.026323922 -0.022158207 0.020091092 0.0049300278 -0.0042658863 -0.032209035 0.011987749
86 -0.009493843 -0.01049663 0.011233539 0.022752307 0.020220945 0.02013224 -0.021110721 -0.029743047 0.029559283 0.012865863 -0.017038696 -0.01410323 -0.007815952 0.01750995 0.010880458
73 -0.0014339387 0.016531534 0.017041681 -0.021131247 -0.010691635 -0.023082217 0.033603296 -0.004980077 -0.008298584 0.01784071 -0.00072965445 0.01047838 0.015851257 0.009147745 -0.023894448
12 -0.005033786 -0.013235989 -0.012366929 -0.016935047 0.0030343963 0.031457156 -0.02526714 -0.010142373 0.003525031 0.029081987 -0.02301527 -0.011366865 0.01901293 -0.027136486 -0.028880868
