37 30
0 -0.002115061 -0.010710517 -0.00021146337 0.01585471 0.013615173 0.013617786 0.0167581 0.016644193 -0.010940311 0.0021938223 0.00986696 -0.011398927 -0.0001780713 0.0108753685 0.01627119 1.4788284e-05 0.012717625 0.011784616 0.007157065 0.008570674 -0.010279444 -0.0077135013 -0.013633786 0.017596837 0.0013280334 0.0055031707 0.010040064 -0.014794034 0.013350419 -0.005260657
1 -0.012288189 0.005665216 -0.009008143 -0.0045526163 0.010700133 0.007238697 -0.010262829 -0.004227145 0.004449561 0.014801188 0.009978368 0.014691957 -0.000887305 0.0031498875 0.002133521 0.0031782924 -0.009091746 0.011481117 0.0003136066 -0.014771591 0.005224512 -0.0056965845 0.0036158895 0.0047908826 0.0002495863 0.01039244 0.00992437 0.00590029 -0.014235171 -0.008053442
17 0.0034973733 -0.0056810286 0.0049793706 0.01672833 0.0036095134 0.0046201954 0.0047124047 -0.0051542525 0.007724492 0.01120299 -0.006830643 0.0070915436 0.013144692 0.0067543997 -0.008508252 -0.010052079 -0.01581277 0.016911577 0.008054828 0.00525377 -0.003404338 0.008833932 -0.0008019953 0.0056331153 0.0044937516 0.01504555 -0.0031386989 -0.0027454717 -0.015741453 -0.0016203529
4 0.0027051568 0.015862208 0.004138737 0.008065443 0.010461085 -0.01134953 0.0064342315 0.0038885928 0.0042494647 0.007075634 -0.010501488 -0.0011770506 -0.010562395 0.0031481844 0.0093283765 0.010560311 -0.016045386 -0.0143527575 0.008547886 0.007087803 0.0041426667 -0.014948816 0.0053665 0.0030188903 0.010229667 0.016430564 0.009470141 -0.013330463 -0.009930286 -0.002025472
11 -0.00908074 0.0036029373 -0.011476373 -0.003869634 0.0038694385 -0.0049306415 -0.009987223 -0.002617554 0.0042650388 0.0030593558 -0.0128943 -0.012000779 -0.009332072 0.015364305 0.009517803 -0.00027643194 -0.011513707 0.0054916013 0.0077921296 -0.0019053333 0.005405301 -0.0079508275 -0.001512855 0.012355855 -0.0017511691 -0.0155436 0.00011339391 0.008054682 0.011078867 -0.010802908
14 -0.0062497063 -0.014282377 0.007170134 -0.008733756 -0.0050935238 -0.0026576095 -0.010253261 0.014443124 -0.009655154 -0.008306409 -0.011051369 0.007661363 -0.0071710367 -0.009293269 -0.011422136 -0.0090392195 -0.0016731791 0.0045538335 -0.004004326 -0.014657857 0.0100142285 0.0058002835 0.013285562 -0.011909596 -0.014623283 -0.0037019125 -0.016024929 0.011180696 -0.011092506 0.0010275836
8 0.007071008 0.009644001 -0.01362834 0.01253323 -0.007225029 -0.008101979 -0.008573935 0.0004287045 0.015551587 -0.002714208 -0.014861676 0.011937638 0.013413074 -0.010794119 -0.011373703 -0.010857808 -0.010806618 -0.009022378 0.00788839 0.016316371 0.009485582 -0.010427206 -0.0018926497 -0.0009668866 -0.014618275 -0.013230725 -0.007354543 -0.015078048 0.011558315 -0.010133149
9 -0.0042680902 -0.003964848 0.010725674 -0.007094556 0.0011245694 -0.008177544 0.009719313 0.004110004 -0.016581455 -0.010413446 -0.008257829 -0.014964432 0.004230483 0.015653055 0.015215112 0.0048497035 0.0074770837 0.0112681165 -0.004167062 0.012089889 0.0083407685 0.0074130553 0.0043644216 -0.0024587119 0.00724692 0.0069608768 -0.008406768 -0.0034817478 0.012419712 -0.003441781
6 -0.009952456 0.016408166 -1.8491908e-05 0.010956532 -0.006813395 0.014120887 0.011269923 -0.009613334 0.011682895 -0.0065330463 -0.003312781 -0.0024602436 -0.008800571 0.007565386 -0.008809427 -0.014657963 -0.0035530091 -0.003295222 0.0043225717 -0.010460441 0.010935538 -0.00037841 -0.0045855073 0.012242236 -0.0164606 0.016604088 -0.010039364 -0.014065447 -0.0044935793 0.0029889666
20 0.0036004605 0.016621899 -0.0137107335 -0.0029332459 -0.011464751 -0.007801971 0.0034098225 -0.014525748 0.005057013 0.0035987394 -0.012939666 -0.0017931275 -0.0065169074 0.0069214287 0.015059556 0.01153303 0.010665335 0.0149849495 0.010643911 -0.0010122742 0.015624532 0.0063382285 0.0066411025 -0.011735996 0.014606489 0.0011018828 -0.013827393 -0.013829153 -0.011536629 0.011416029
22 0.0131106 0.012452673 -0.0012071605 0.01294534 -0.012803193 -0.0010950833 0.015801983 -0.007882591 0.0033239732 0.004399551 0.006049741 0.011558331 -0.007600846 -0.006771869 0.007919615 0.0076425644 -0.009495376 0.0076344837 0.006603904 0.004233189 -0.012562279 -0.007589804 -0.009745678 0.0052345186 0.013037407 0.011420424 -0.005438384 0.00949907 -0.001660012 0.013225328
16 -0.0076104114 0.007356545 0.0150352195 0.010178145 -0.015929911 0.00067322643 0.00060049375 0.0067500724 -0.010614766 -0.007328629 0.012266075 -0.007985757 -0.009354888 0.010323751 0.0017440207 0.00033967601 0.015783649 -0.005857856 -0.01061528 0.015490473 -0.009651277 0.016259998 -0.009313368 -0.005482684 -0.0011451112 0.011139796 0.014567778 -0.0094758505 0.010429902 0.0025130007
15 0.0024443532 0.006702395 0.001287357 0.010776211 -0.0047592362 -0.0018769843 0.0035578727 -0.0018644596 -0.01595301 -0.014894598 -0.011641281 -0.011470554 0.014392902 0.0050652474 -0.008129098 -0.009913077 -0.0077398736 -0.0017204086 0.012157865 -0.0045217164 -0.009474357 0.014065814 -0.0047854153 0.010218935 -0.01572517 -0.0020730803 -0.0023762006 0.015274543 0.008568579 0.010895893
3 0.0074424227 0.015440923 -0.008855914 0.0015429802 -0.010926878 0.0071465815 0.0033317152 0.009907098 0.0128410915 -0.013357421 0.0017439554 -0.003915282 -0.009131817 0.0074075004 -0.014992723 -0.008732085 -0.001064961 0.0038914632 -0.007263802 0.003712527 -0.00028069085 -0.012725932 -0.011034843 0.003029377 -0.0003192653 -0.002069679 0.01390736 -0.010557923 -0.010724155 -0.007911055
31 -0.0024507258 0.0020439583 -0.0048525915 -0.006590608 -0.012642383 0.007140516 0.010545339 0.015862456 -0.002297827 -5.9270824e-05 -0.0065056137 -0.0026257664 0.004386694 0.0083474275 -0.0071113654 -0.008321279 0.008946675 0.017252348 0.0051870006 -0.014440992 -0.0027612683 -0.014777871 0.010746415 0.009451029 0.0038188372 0.0068553714 -0.01042327 0.003835232 0.016626935 -0.011773209
29 0.007351251 0.0147906225 0.005189051 0.005940554 -0.006283128 -0.010851816 0.0024460733 0.00036890473 0.0025836683 -0.0036293908 0.0069966493 -0.004755813 -0.000593937 -0.007397145 0.0012728345 -0.0038267241 0.016029797 2.1440319e-05 0.007466211 -0.0011877386 0.012180472 0.013251865 -0.010310283 -0.0039614434 -0.0012272327 -0.012271609 0.010718124 0.0034603404 0.013424972 0.0067839012
10 0.004052935 0.005471271 -0.009275409 0.012774637 -0.0008643271 0.0074829254 -0.009808441 0.015135796 -0.012369847 -0.016062645 0.01029955 -0.015777845 -0.014264286 -0.001191251 -0.004728154 0.014798343 0.016612867 0.014820614 -0.0018790296 0.011056821 -0.0031183115 0.012236698 -0.010677678 0.009290515 0.013438779 -0.016191728 0.010292485 -0.008955675 -0.0061452272 0.013103662
30 -0.012006214 0.011142728 0.009989728 -0.0071961787 -0.011663088 0.0035695725 -0.0047177947 -0.0070443824 0.014024984 -0.0032321666 -0.011386416 0.0020006418 0.0072281584 -0.00827026 -0.0002858391 -0.0072565745 -0.006547852 -0.0016363424 -0.010729968 -0.0055994466 0.009373893 -0.0016558666 0.0027599768 0.007130395 -0.007348718 -0.009005701 0.0014944305 0.00773777 -0.011654181 0.0008907729
23 -0.014561311 0.0064262566 0.0008100614 -0.011221291 0.0152167585 -0.013330666 0.009395049 0.0004871037 -0.011318459 -0.015792603 -0.011500072 0.012904712 0.002585171 -0.0020102274 0.0026480597 0.00452973 0.008360085 0.0044608135 0.011484318 -0.004449478 -0.01359963 0.0011204924 -0.0029976345 0.0047107153 0.014726601 0.002872217 0.013901661 0.010832714 -0.01156165 -0.0036024726
34 0.009698348 0.01363862 -0.011673002 0.006489756 0.014691545 -0.0061523505 -0.012727911 0.0067746574 0.012851893 -0.004497321 0.011512172 0.003853985 0.00993898 0.007696612 -0.011504554 -0.004641348 0.009594312 0.0130244605 0.012184952 0.005075139 0.003904035 0.008428571 0.00013671216 -0.013384772 0.003916552 -0.013371366 0.010806553 -0.014268487 0.0002571749 -0.010504448
7 0.012752412 -0.013296256 -0.014190419 0.009103574 -0.0026955337 0.010045534 7.9272555e-05 0.008875636 -0.0021248034 0.0028179912 0.012292502 -0.011173743 -0.0070899394 0.004160435 0.0066885664 -0.010636445 0.0028008365 -0.0020077408 0.0020307933 -0.006680227 -0.016484825 0.0080376575 -0.015434911 0.014492042 -0.0010130174 0.0041926126 -0.004095499 0.014556474 -0.0025878528 -0.00014419317
24 -0.011775693 -0.004541593 0.001516621 0.00799885 -0.014611335 0.012243395 0.012196769 0.0115265455 0.0040287683 -0.0064279777 -0.0073113684 -0.003905505 -0.015243356 0.0077352934 -0.00018726567 0.013903192 -0.011733231 -0.0012404859 0.0036799193 -0.012326812 0.009501676 0.012320713 0.007831693 0.0049976334 -0.014350653 -0.0066328114 0.0023500856 -0.0009846332 -0.012323595 0.011779943
5 0.0013370003 -0.013588664 -0.0079511255 0.013499797 -0.00027507133 -0.015487506 -0.014718287 -0.014636264 -6.964704e-05 0.008855558 0.0050308653 -0.0054014046 0.00248213 0.0019040208 0.011020004 0.015506843 -0.0003186506 -0.0035121115 0.010897603 0.0020129597 -0.0009871598 -0.008942293 -0.016440554 0.008736881 0.00851929 0.001344487 0.0138577325 0.011039987 0.01616732 -0.01042202
28 0.013460762 0.004318203 0.007176319 -0.015871022 0.015857322 9.9145545e-05 -0.008953823 0.014833728 -0.0131103 -0.016317345 0.0014173919 -0.00757303 0.015848713 0.010091979 -0.015093562 0.012789442 0.0019498416 -0.004009802 0.0038775927 -0.008115041 -0.012276474 -0.011156889 0.009347881 -0.0054286066 -0.011111939 0.015729608 -0.014149246 0.0132865915 0.013460696 0.0008614158
35 0.0054909373 -0.0035567991 -0.007301268 -0.013816074 0.008326435 -0.0014209601 0.0045348704 -0.0069471835 -0.002698585 0.005585158 -0.012655055 -0.004187651 0.01656468 0.0032807474 -0.011106939 0.000118478616 0.009425979 0.0050456324 -0.0076419674 -0.0027671487 0.007204909 -0.0032279883 0.011006893 -0.0054771686 -0.0009257008 0.0024692996 0.005700456 0.012501296 -0.010644053 -0.011175788
18 0.0008138002 -0.0056777247 0.008603772 -0.0131651675 -0.008968851 -0.014680091 -0.0072712475 0.0072713196 -4.373536e-05 -0.012402203 -0.009324607 0.015398858 0.009776397 0.002917884 0.006082526 -0.014005665 -0.011955226 0.0033195429 0.011960417 0.009319636 -0.015787229 0.0042034946 0.015110812 -0.010430268 -0.008284881 0.0058478857 -0.006090505 -0.003176046 0.0064279274 -0.0009996819
26 0.010079287 -0.015064726 -0.005927478 0.0091247875 0.013995014 -0.011096141 -0.012774408 -0.0104387095 0.0061585777 -0.014673278 -0.016110728 -0.01420651 -0.0062539214 0.006653704 -0.011803511 0.011666432 0.004298813 -0.014312225 0.007155043 0.012623458 -0.011196085 0.00024491132 0.0039133457 -0.008110138 -0.009112253 0.00282033 -0.0148383165 -0.0022618184 0.00025028235 -0.014258123
13 -0.014165503 0.0062204683 -0.013657951 -0.0060497713 -0.0010159233 -0.013943639 -0.010055724 -0.001759878 0.01578394 0.007778776 -0.0038686197 0.004993299 -0.010482593 -0.011342751 -0.0039271107 -0.00856946 0.010133531 0.0040752236 -0.0037382573 0.0019845157 0.006242561 0.015460504 -0.014255039 -0.014749533 -0.0016025996 0.012843359 -0.012715735 -0.012516919 0.012657142 -0.0117009645
2 0.0077775912 -0.008409057 0.0088402135 -0.007493906 0.005114752 0.016139137 -0.007285075 -0.008640572 -0.014110748 0.014832396 0.007461059 0.01209493 0.014117123 0.0043601715 -0.009635999 0.00083358545 0.0019587697 9.281142e-05 0.0095155025 0.013950339 -0.006099758 0.00042254175 0.0114151025 -0.013074453 -0.007962553 -0.014976648 0.0054626837 0.0073385825 -0.00018182525 -0.0037466062
21 -0.009794724 0.008961258 -0.0020468796 0.007098966 0.0014701249 -0.0031368723 0.002264962 0.0128798615 0.01188407 0.006580383 0.006100371 -0.01072291 -0.00044057422 -0.0021420019 -0.009072416 -0.015100224 -0.007804664 0.012963202 0.013968375 -0.009227216 0.0074882233 -0.0007019932 -0.010032999 0.016437931 0.011893996 0.012837303 -0.00903732 -0.014307117 0.011941156 -0.00182632
32 0.0006035744 0.013071224 -0.01587606 -0.0008693731 0.014802592 -0.006484443 -0.008642401 -0.011845442 -0.006764166 -0.0022904598 0.01173566 0.01631497 0.0005717191 -0.0144899655 -0.015304224 -0.0133604705 -0.012639818 0.0008906729 0.00023868773 0.015347004 0.008951232 0.015897213 0.0069215894 -0.007359952 -0.001917841 -0.00782732 0.014883859 -0.01190618 -0.014474759 -0.0104904575
27 0.015452856 -0.011846287 0.0052785627 -0.015471623 -0.015648503 0.0055504856 -0.004982953 -0.014262921 0.013000409 0.009516116 -0.009884818 -0.012853635 0.013681734 0.00962081 -0.0068538846 0.008873593 0.009968554 0.0093019195 -0.008959728 0.004532328 -0.0032294102 0.007335255 0.012353892 0.013605665 0.00358811 0.003280934 0.0026415742 0.0009859769 -0.00055734435 0.010812964
19 0.015220993 -0.012434644 -0.005559031 -0.012134234 -0.012212041 0.007926848 -0.0074153137 -0.0071363566 0.0149317 0.013183119 0.0033759435 -0.0012322129 -0.014420145 0.0144060785 -0.0017076866 -0.008653343 -0.013685256 0.015131113 0.007680169 -0.0024532403 0.010431847 0.013882984 0.009523006 -0.010339008 0.010763074 0.00541636 -0.008566443 0.0011693382 -0.013925188 0.0032174445
33 0.013458256 0.012933584 0.003636213 0.010676563 -0.008462622 -0.009603789 -0.0011893776 -0.0078039854 0.010516079 -0.01247923 -0.004696938 -0.008343069 0.0023947225 0.0027063193 -0.012270945 -0.000342816 -0.008200194 0.012308375 0.013630649 -0.010690902 0.0042396 0.003325503 -0.00594009 -0.00652982 0.014533641 0.011882555 -0.009029642 -0.013301885 0.016171783 0.011026552
36 -0.007756918 0.006501514 0.009689906 0.0034502614 0.016438762 0.007900414 -0.0135459425 -0.0076405006 -0.0018557674 -0.013534818 0.014631407 0.00062509207 -0.01266764 0.0028875673 -0.0013417454 0.0043385956 -0.0096390005 0.0056348047 -0.013719926 0.014227763 -0.0107048955 0.016228653 -0.0035973492 0.009458478 -0.009970343 -0.0155275855 0.0034034601 0.009032514 0.0012635592 0.0069313473
12 0.014584312 0.0026367754 0.0057764393 -0.013745192 0.004609177 -0.012425778 -0.0053306124 -0.001554258 0.012396124 0.002050664 0.0023949756 0.014820963 0.003396333 0.016276274 -0.0038210151 -0.0040426534 0.012712189 0.0015371352 -0.015495539 -0.0028257025 -0.003225254 0.00933787 -0.015928842 0.015193929 0.0047769607 0.010182882 0.0019858847 0.00555015 0.015884537 -0.015454665
25 0.0049289395 0.0058469404 -0.012719827 0.005800157 0.015001412 -0.016192416 -7.908119e-05 -0.005625767 0.014193023 -0.01276172 -0.009277553 0.012751503 0.0014207702 -0.011463052 -0.01672939 -0.016363092 -0.0045507783 0.010932508 -0.004533081 -0.004999487 -0.015872885 0.003751023 -0.010285393 0.0050937617 0.014528866 0.015458908 0.013819071 -0.012307002 0.004504855 0.00640514
