37 20
0 -0.024091678 0.024786523 0.023456523 0.0082341 0.020892458 0.01722426 0.022157315 0.017724836 -0.0136815645 -0.0055404766 0.01640423 0.019564955 0.021276012 0.005538464 0.023010768 -0.0129273385 -0.0027476854 -0.020881552 -0.008126844 0.017648539
1 0.018645277 0.020844214 0.008622321 0.004537396 0.019592619 0.0009257532 0.0002118809 -0.020598937 0.009657283 -0.021857295 -0.011477592 0.015564291 -0.0038965745 0.00011030505 0.0008110054 0.021285374 0.020690603 0.014291311 0.015604246 -0.004183952
11 0.023615573 -0.0016602264 -0.011561256 -0.023823638 0.0063054357 -0.00835916 0.0221954 0.0030619078 0.0042004175 0.010858192 0.009334604 -0.021088544 -0.0023749406 -0.019913126 -0.0025854541 0.001732991 -0.002152137 -0.02062273 0.015607083 0.002546619
17 0.0028833786 -0.017142368 0.0014996898 -0.0012665492 0.0043075937 -0.0036316554 0.010401479 0.004012452 0.00574149 0.012239527 0.022212416 0.008083188 0.0031135469 -0.012657665 -0.0074831815 0.010136487 -0.018572578 0.0063990867 0.008501309 -0.01752541
14 0.013122977 -0.00489935 0.01476744 -0.0033407167 -0.0058439746 0.015598226 -0.01671014 0.019758414 -0.019943113 -0.023676956 0.00081425294 0.020633394 -0.011147524 -0.009531548 -0.016463356 -0.01073731 -0.011988906 -0.007713007 0.010034968 -0.013356049
8 -0.02045096 0.001495584 -0.010229078 0.014602211 0.017692018 1.47708015e-05 -0.005740033 -0.008899201 -0.021013187 -0.022510862 0.008129165 0.008197783 -0.010021898 0.0063867406 -0.012611672 0.017383646 -0.004732956 0.017620467 0.011643697 -0.01101739
4 -0.024396744 -0.010412109 0.024330482 0.014713621 0.014911636 -0.00979315 0.015474028 -0.002192254 -0.022614917 0.009479776 0.013124109 0.01818071 -0.020738654 -0.008173554 -0.018704537 0.0062283054 0.010883544 0.0059580663 0.024271175 -0.01120557
15 -0.0018435882 -0.014500838 -0.02121348 0.014962437 0.02050387 -0.008895828 -0.015774366 0.0035692123 0.0064573796 -0.018332392 0.022297252 -0.013159688 -0.0065798005 0.021364413 0.0062406496 -0.0010341022 -0.0025562989 0.0015153537 -0.021755084 -0.016604854
9 0.010087949 0.0066815782 -0.013172132 0.0025129882 -0.0039569107 -0.011129738 0.015692865 0.0048459247 -0.021250982 0.01698297 -0.0031694898 -0.021385152 0.009505615 0.015585193 -0.023859946 -0.00054564927 0.0052290186 -0.01935129 -0.0076404703 0.017405454
6 -0.010512058 -0.004290755 0.018215982 0.008370274 -0.0014150172 0.010156228 -0.02115653 -0.016329234 -0.014343542 0.0029821426 0.0034583793 -0.0073547745 0.0155902505 0.019360837 -0.0036139542 0.018228604 0.019186217 0.014121893 -0.0032137563 0.016065769
3 0.017422559 -0.0062931855 0.004736187 -0.0043111644 -0.011746529 -0.005528285 0.017086076 -0.0009447319 0.02376598 -0.014643944 -0.010501217 -0.024302827 -0.021165118 -0.02173936 0.006942643 -0.00582895 0.020742584 0.0061113974 -0.0072186496 -0.011724447
20 -0.013104899 0.024306927 0.0207135 -0.007951235 0.007237692 -0.019725503 0.0027716877 -0.02124377 -0.015973974 0.0039740694 0.018462736 0.012401674 0.008283445 0.02401206 0.020923024 -0.0005462499 0.023049124 -0.007000401 0.024735676 -0.019545542
31 0.004429751 -0.01920539 -0.021600341 0.023501929 -0.0084810965 0.011530304 -0.014924363 -0.014018463 0.006201006 -0.005121391 0.0051241484 0.0019910862 0.0077916225 0.0006111266 0.017725596 -0.007064381 0.0023123021 0.0034022077 0.016115105 0.023774503
30 0.006025283 0.0058284868 -0.024606558 -0.017026942 0.00762726 -0.017928086 0.011072634 -0.015911892 -0.017778262 0.014120805 -0.015665917 0.012616633 0.02148836 -0.017985485 0.010493828 -0.022949917 -0.0034104828 0.010205037 -0.022175364 0.018265277
24 -0.02433202 0.01956019 0.008486909 0.011794246 0.019697074 0.0105968155 0.016073171 -0.0063777766 0.022317547 0.013958376 -0.011778881 -0.007544673 -0.002798789 0.013858168 -0.011276987 0.0031370355 -0.00049722946 0.0002349555 0.017522095 -0.0107217785
23 -0.0052300678 -0.010095478 0.013831048 0.021987341 0.0115559995 -0.016372243 0.0120525025 0.0074882326 0.003806011 0.012359149 0.017411603 -0.02001847 0.019049957 -0.0016276999 0.011380675 0.02294476 -0.018321786 0.008919676 -0.013457993 -0.019279566
22 -0.019550528 0.007841683 0.0038250715 0.02408103 0.008595847 0.022864865 -0.021837952 -0.019195592 0.003342567 -0.016566925 0.023927439 0.013340324 0.004249459 -0.022180423 0.011927225 -0.0126249 0.018539587 0.017167313 -0.0011794335 0.008695088
29 -0.0014106983 0.02114935 -0.004720617 -0.02213167 0.006258598 -0.018258426 -0.0017600479 0.0018708345 0.016133523 0.009796691 0.016014135 0.0007099818 0.014612304 -0.017320363 -0.019957274 -0.014019078 0.0030126537 -0.0113767665 0.0040274765 0.0011835335
16 0.00911474 -0.023603056 -0.011643556 -0.007282877 -0.003129071 -0.0017375184 0.009048509 0.018935416 0.019143017 0.0051824125 -0.0054793055 0.006251391 -0.0027821015 0.024946852 0.003299841 -0.017496172 0.024534218 -0.023602627 0.006826806 -0.015939243
28 0.004768489 -0.02085693 -0.00056125055 -0.022474099 0.013097909 -0.0057164133 -0.021642867 0.008829996 -0.0038699082 0.009642929 -0.0005678339 -0.0038972502 0.0038735194 0.011236499 0.00058938423 -0.0035991543 -0.017137079 -0.0022091013 0.008912296 0.006030518
34 0.014237936 -0.023061961 -0.022674026 -0.022987163 -0.0033485794 -0.007971791 -0.018331282 -0.008883637 0.008439673 -0.0004709472 -0.016367793 -0.01283745 0.012084484 -0.015062971 0.017523332 -0.023643628 -0.017598897 0.0031942606 0.021434419 -0.015743393
36 0.01804924 0.00034561896 -0.015722949 0.024466643 -0.015233998 -0.021718236 0.018192008 -0.022671852 0.0001691083 -0.00704392 -0.024831994 -0.01659986 -0.020477213 -0.004697828 -0.016418416 0.017292455 0.023988128 -0.0007506409 0.020752957 -0.010555767
35 -0.023586174 -0.022504598 0.01737533 0.016874185 0.019977352 -0.0039026013 -0.0075951414 -0.016513735 -0.022795739 -0.0004491298 -0.014680648 -0.020770244 0.0059704524 0.008463574 -0.024541425 0.0077284663 -0.017117413 0.011666151 0.011964549 0.014509992
18 -0.019025465 0.0104463855 0.0055789123 0.018658344 0.023929443 -0.01819461 -0.017619003 0.01323105 0.024350366 -0.0013247413 0.019841049 -0.017001703 0.014645497 -0.017514732 0.01161006 -0.01909585 0.0027699496 0.021480588 0.0015132518 0.0113207
5 0.021504257 -0.0015123257 -0.0029619965 0.003619882 0.0068673803 -0.015092708 0.021785209 0.021696303 0.019630786 0.021580575 0.013791303 -0.010313086 0.02252975 -0.00042707133 -0.0068691885 0.016862132 -0.018380005 -0.02006451 0.021627918 0.024155727
26 -0.013746039 0.01516181 -0.014387366 -0.018469293 -0.0069806715 -0.020047704 0.02025848 -0.015398719 -0.012340067 0.01656995 0.02482235 -0.000362669 -0.008325373 -0.02370291 0.007862913 0.0077296924 -0.016556224 0.0060396516 -0.017115194 0.02143605
10 -0.011584058 -0.019454403 0.01712625 -0.0061261593 -0.005631673 0.01152225 0.007139006 -0.006143773 -0.005817814 -0.0077007296 -0.016184995 -0.004802831 -0.01496021 0.0053410316 -0.0051432746 -0.021272091 0.005053446 -0.01763342 -0.010315084 0.007021185
13 -0.021572266 0.0033728916 -0.0195671 0.014181363 -0.0031370774 -0.006140231 -0.0013295636 0.0073553408 0.019653615 0.0078933695 0.0038534242 -0.0043548336 -0.02197227 0.005029258 -0.0141213145 -0.01097807 -0.020925207 -0.00945761 0.008523023 0.022564763
32 0.015225123 0.021264337 0.017521597 -0.024590552 -0.0029045402 0.012155992 0.0040376824 -0.011561978 -0.021725968 0.0038876177 -0.015590715 -0.01710436 -0.012320742 0.00954144 0.013839802 0.0017402449 -0.013450826 0.020130131 0.005955775 0.013377488
2 -0.009712954 0.01753937 -0.005620273 -0.0041099773 0.01876832 0.006635777 -0.0070261736 -0.014032834 -0.015788807 0.003120963 -0.0058302847 -0.023664717 -0.015729908 0.019899802 -0.0051474283 0.0078010447 -0.001446038 -0.005364655 -0.015984716 -0.024411334
7 -0.005019997 0.0067115827 0.019658811 0.020674145 0.01577955 -0.020791056 -0.005735163 0.009996281 -0.00989206 -0.010261724 -0.0064312723 -0.024753746 0.016242333 -0.0050924737 -0.020611316 0.021909248 0.012676986 -0.023591504 0.020808697 -0.0048061493
21 -0.00067931577 -0.00019835228 -0.00045446423 -0.007246996 0.0011641148 -0.018882576 -0.0014056189 0.0045679417 0.015078669 -0.010956516 0.011657859 0.021202259 0.008942393 0.004975231 -0.0053775837 0.004696619 0.019677049 -0.0072915074 -0.0039652237 -0.013230285
25 0.00723682 -6.720513e-05 -0.016081072 -0.001635669 0.003835065 0.0094059585 -0.008545949 0.005170293 0.012011833 0.015625127 -0.01908223 -0.022066433 -0.021816766 -0.021059643 0.019538887 -0.0026543413 0.01446854 -0.010715296 0.014181414 -0.0044611585
33 0.012487719 0.0005136364 -0.017789602 0.0031056092 -0.010605251 0.0012576779 0.007876763 0.01649574 -0.019810775 -0.0069670402 0.013781888 -0.007073468 -0.0008963137 0.021538362 0.011401464 0.019727714 0.0046768393 -0.024345355 -0.018116962 0.022710351
12 -0.022669211 -0.0017752012 0.004403992 0.0008081029 0.0066185696 -0.011956306 -0.024578888 -0.019594874 -0.0017803053 0.008880724 -0.008627271 -0.015207023 0.016196856 0.0028063974 -0.0021220392 0.020261895 -0.022024348 -0.0015467057 0.015380539 -0.009786791
19 0.004470634 -0.005936831 -0.019955387 -0.007003564 -0.02469915 0.0019153769 0.015759159 0.01730262 -0.018213257 0.0061096097 0.022584898 -0.015147775 0.013865738 0.017235607 -0.011296067 -0.021372152 0.021311302 -0.01133641 0.018721823 -0.014888732
27 -0.017118944 -0.018935913 -0.023170516 -0.0010929116 0.009721298 0.006460727 -0.021074364 0.0030792316 -0.015024692 -0.01583332 -0.009772434 0.001682118 0.013541005 -0.00025132316 0.013650698 0.021684516 -0.022374874 -0.01605268 -0.009364331 -0.0021234753
